digraph Tree {
node [shape=box] ;
0 [label="construction date (yyyymmdd) <= 5178.5\ngini = 0.9964\nsamples = 31365\nvalue = [1, 1, 1, 2, 1, 1, 1, 1, 1, 1, 1, 1, 1, 1, 7, 11, 9, 14\n19, 17, 8, 11, 14, 8, 9, 9, 9, 18, 56, 67, 79, 69, 74, 74\n78, 83, 64, 66, 71, 53, 63, 49, 63, 50, 46, 43, 44, 39, 53\n40, 46, 38, 43, 45, 41, 46, 29, 50, 42, 39, 25, 36, 42, 48\n53, 42, 49, 35, 42, 48, 34, 45, 45, 44, 43, 37, 37, 41, 42\n45, 45, 37, 35, 40, 37, 33, 36, 36, 34, 38, 43, 35, 31, 40\n38, 37, 39, 41, 43, 67, 45, 49, 45, 38, 46, 57, 56, 55, 80\n45, 60, 62, 55, 54, 66, 63, 45, 57, 79, 64, 90, 75, 72, 78\n71, 92, 80, 91, 86, 89, 78, 95, 86, 95, 104, 106, 119, 111\n120, 127, 131, 131, 125, 125, 127, 122, 156, 136, 143, 150\n146, 155, 157, 152, 162, 153, 174, 182, 165, 174, 155, 184\n185, 179, 166, 173, 188, 164, 161, 166, 202, 161, 209, 203\n204, 209, 219, 198, 221, 229, 205, 233, 208, 225, 175, 201\n236, 191, 187, 193, 193, 194, 196, 196, 199, 201, 169, 205\n211, 165, 170, 167, 145, 192, 175, 186, 182, 151, 148, 163\n169, 163, 160, 169, 146, 147, 132, 146, 162, 118, 129, 158\n163, 135, 119, 121, 153, 117, 127, 104, 134, 99, 123, 95\n108, 98, 101, 98, 81, 80, 92, 76, 71, 75, 70, 63, 61, 59\n67, 69, 54, 51, 53, 54, 70, 60, 41, 42, 51, 43, 41, 54, 56\n61, 39, 45, 57, 42, 50, 47, 46, 45, 45, 48, 44, 39, 47, 51\n32, 67, 42, 40, 39, 33, 31, 27, 42, 31, 26, 26, 29, 32, 29\n33, 39, 45, 30, 36, 40, 47, 41, 42, 41, 33, 49, 31, 36, 47\n31, 56, 46, 40, 36, 49, 56, 46, 37, 45, 49, 47, 57, 41, 51\n44, 55, 55, 45, 45, 36, 40, 46, 42, 59, 50, 33, 44, 41, 35\n42, 41, 32, 39, 27, 36, 38, 45, 30, 40, 29, 28, 39, 34, 47\n35, 32, 35, 31, 30, 32, 42, 23, 31, 34, 34, 36, 30, 29, 33\n27, 30, 27, 29, 37, 35, 31, 31, 25, 14, 23, 38, 20, 27, 25\n31, 18, 20, 12, 25, 15, 17, 20, 25, 20, 15, 14, 16, 18, 17\n16, 16, 17, 20, 17, 12, 15, 13, 14, 13, 10, 11, 18, 11, 13\n22, 32, 38, 42, 18, 27, 36, 32, 28, 26, 22, 29, 32, 26, 26\n24, 17, 28, 34, 24, 22, 19, 18, 20, 13, 14, 19, 15, 13, 21\n19, 12, 10, 13, 25, 26, 20, 21, 20, 28, 19, 26, 31, 29, 22\n27, 23, 17, 18, 33, 29, 30, 23, 20, 18, 25, 31, 29, 28, 22\n20, 18, 22, 22, 23, 25, 20, 22, 17, 15, 19, 17, 21, 18, 10\n3, 9, 5, 8, 10, 4, 13, 6, 19, 6, 6, 8, 8, 8, 9, 8, 13\n8, 12, 8, 5, 10, 7, 7, 5, 3, 8, 8, 11, 6, 9, 6, 3, 6, 3\n5, 3, 6, 6, 5, 2, 4, 1, 3, 5, 4, 3, 1, 3, 1, 1, 2, 5\n1, 1, 3, 2, 2, 1, 1, 3, 2, 1, 2, 1, 1, 1, 1, 1, 1, 1\n1, 1, 1]"] ;
1 [label="construction date (yyyymmdd) <= 2949.5\ngini = 0.9957\nsamples = 15887\nvalue = [0, 0, 0, 0, 0, 0, 0, 0, 0, 0, 0, 0, 0, 0, 0, 0, 0, 0\n0, 0, 0, 0, 0, 0, 0, 0, 0, 0, 0, 0, 0, 0, 0, 0, 0, 0\n0, 0, 0, 0, 0, 0, 0, 0, 0, 0, 0, 0, 0, 0, 0, 0, 0, 0\n0, 0, 0, 0, 0, 0, 0, 0, 0, 0, 0, 0, 0, 0, 0, 0, 0, 0\n0, 0, 0, 0, 0, 0, 0, 0, 0, 0, 0, 0, 0, 0, 0, 0, 0, 0\n0, 0, 0, 0, 0, 0, 0, 0, 0, 0, 0, 0, 0, 0, 0, 0, 0, 0\n0, 0, 0, 0, 0, 0, 0, 0, 0, 0, 0, 0, 0, 0, 0, 0, 0, 0\n0, 0, 0, 0, 0, 0, 0, 0, 0, 0, 0, 0, 0, 0, 0, 0, 0, 0\n0, 0, 0, 0, 0, 0, 0, 0, 0, 0, 0, 0, 0, 0, 0, 1, 0, 3\n1, 14, 18, 23, 29, 39, 28, 42, 42, 45, 62, 67, 78, 68, 87\n73, 93, 88, 95, 105, 103, 101, 78, 96, 121, 95, 95, 90, 106\n94, 120, 118, 105, 117, 104, 122, 126, 93, 87, 95, 78, 125\n107, 123, 120, 97, 101, 127, 123, 117, 111, 130, 105, 104\n86, 113, 123, 97, 114, 130, 139, 120, 99, 98, 136, 106, 119\n96, 125, 95, 116, 93, 108, 98, 101, 98, 81, 80, 92, 76, 71\n75, 70, 63, 61, 59, 67, 69, 54, 51, 53, 54, 70, 60, 41, 42\n51, 43, 41, 54, 56, 61, 39, 45, 57, 42, 50, 47, 46, 45, 45\n48, 44, 39, 47, 51, 32, 67, 42, 40, 39, 33, 31, 27, 42, 31\n26, 26, 29, 32, 29, 33, 39, 45, 30, 36, 40, 47, 41, 42, 41\n33, 49, 31, 36, 47, 31, 56, 46, 40, 36, 49, 56, 46, 37, 45\n49, 47, 57, 41, 51, 44, 55, 55, 45, 45, 36, 40, 46, 42, 59\n50, 33, 44, 41, 35, 42, 41, 32, 39, 27, 36, 38, 45, 30, 40\n29, 28, 39, 34, 47, 35, 32, 35, 31, 30, 32, 42, 23, 31, 34\n34, 36, 30, 29, 33, 27, 30, 27, 29, 37, 35, 31, 31, 25, 14\n23, 38, 20, 27, 25, 31, 18, 20, 12, 25, 15, 17, 20, 25, 20\n15, 14, 16, 18, 17, 16, 16, 17, 20, 17, 12, 15, 13, 14, 13\n10, 11, 18, 11, 13, 22, 32, 38, 42, 18, 27, 36, 32, 28, 26\n22, 29, 32, 26, 26, 24, 17, 28, 34, 24, 22, 19, 18, 20, 13\n14, 19, 15, 13, 21, 19, 12, 10, 13, 25, 26, 20, 21, 20, 28\n19, 26, 31, 29, 22, 27, 23, 17, 18, 33, 29, 30, 23, 20, 18\n25, 31, 29, 28, 22, 20, 18, 22, 22, 23, 25, 20, 22, 17, 15\n19, 17, 21, 18, 10, 3, 9, 5, 8, 10, 4, 13, 6, 19, 6, 6\n8, 8, 8, 9, 8, 13, 8, 12, 8, 5, 10, 7, 7, 5, 3, 8, 8\n11, 6, 9, 6, 3, 6, 3, 5, 3, 6, 6, 5, 2, 4, 1, 3, 5, 4\n3, 1, 3, 1, 1, 2, 5, 1, 1, 3, 2, 2, 1, 1, 3, 2, 1, 2\n1, 1, 1, 1, 1, 1, 1, 1, 1, 1]"] ;
0 -> 1 [labeldistance=2.5, labelangle=45, headlabel="True"] ;
2 [label="gini = 0.9956\nsamples = 6912\nvalue = [0, 0, 0, 0, 0, 0, 0, 0, 0, 0, 0, 0, 0, 0, 0, 0, 0, 0\n0, 0, 0, 0, 0, 0, 0, 0, 0, 0, 0, 0, 0, 0, 0, 0, 0, 0\n0, 0, 0, 0, 0, 0, 0, 0, 0, 0, 0, 0, 0, 0, 0, 0, 0, 0\n0, 0, 0, 0, 0, 0, 0, 0, 0, 0, 0, 0, 0, 0, 0, 0, 0, 0\n0, 0, 0, 0, 0, 0, 0, 0, 0, 0, 0, 0, 0, 0, 0, 0, 0, 0\n0, 0, 0, 0, 0, 0, 0, 0, 0, 0, 0, 0, 0, 0, 0, 0, 0, 0\n0, 0, 0, 0, 0, 0, 0, 0, 0, 0, 0, 0, 0, 0, 0, 0, 0, 0\n0, 0, 0, 0, 0, 0, 0, 0, 0, 0, 0, 0, 0, 0, 0, 0, 0, 0\n0, 0, 0, 0, 0, 0, 0, 0, 0, 0, 0, 0, 0, 0, 0, 0, 0, 0\n0, 0, 0, 0, 0, 0, 0, 0, 0, 0, 0, 0, 0, 0, 0, 0, 0, 0\n0, 0, 0, 0, 0, 0, 0, 0, 0, 0, 0, 0, 0, 0, 0, 0, 0, 0\n0, 0, 0, 0, 0, 0, 0, 0, 0, 0, 0, 0, 0, 0, 0, 0, 0, 0\n0, 0, 0, 0, 0, 0, 0, 0, 0, 0, 0, 0, 0, 0, 0, 0, 0, 0\n0, 0, 3, 1, 1, 4, 1, 1, 2, 1, 3, 2, 7, 3, 6, 10, 9, 2\n10, 6, 20, 13, 11, 11, 17, 16, 18, 18, 22, 29, 19, 22, 30\n19, 21, 22, 28, 23, 28, 31, 25, 25, 25, 35, 20, 44, 28, 23\n21, 14, 16, 16, 34, 26, 22, 15, 25, 27, 26, 28, 33, 40, 30\n35, 38, 47, 40, 41, 41, 33, 49, 31, 36, 47, 31, 56, 46, 40\n36, 49, 56, 46, 37, 45, 49, 47, 57, 41, 51, 44, 55, 55, 45\n45, 36, 40, 46, 42, 59, 50, 33, 44, 41, 35, 42, 41, 32, 39\n27, 36, 38, 45, 30, 40, 29, 28, 39, 34, 47, 35, 32, 35, 31\n30, 32, 42, 23, 31, 34, 34, 36, 30, 29, 33, 27, 30, 27, 29\n37, 35, 31, 31, 25, 14, 23, 38, 20, 27, 25, 31, 18, 20, 12\n25, 15, 17, 20, 25, 20, 15, 14, 16, 18, 17, 16, 16, 17, 20\n17, 12, 15, 13, 14, 13, 10, 11, 18, 11, 13, 22, 32, 38, 42\n18, 27, 36, 32, 28, 26, 22, 29, 32, 26, 26, 24, 17, 28, 34\n24, 22, 19, 18, 20, 13, 14, 19, 15, 13, 21, 19, 12, 10, 13\n25, 26, 20, 21, 20, 28, 19, 26, 31, 29, 22, 27, 23, 17, 18\n33, 29, 30, 23, 20, 18, 25, 31, 29, 28, 22, 20, 18, 22, 22\n23, 25, 20, 22, 17, 15, 19, 17, 21, 18, 10, 3, 9, 5, 8\n10, 4, 13, 6, 19, 6, 6, 8, 8, 8, 9, 8, 13, 8, 12, 8, 5\n10, 7, 7, 5, 3, 8, 8, 11, 6, 9, 6, 3, 6, 3, 5, 3, 6, 6\n5, 2, 4, 1, 3, 5, 4, 3, 1, 3, 1, 1, 2, 5, 1, 1, 3, 2\n2, 1, 1, 3, 2, 1, 2, 1, 1, 1, 1, 1, 1, 1, 1, 1, 1]"] ;
1 -> 2 ;
3 [label="gini = 0.9897\nsamples = 8975\nvalue = [0, 0, 0, 0, 0, 0, 0, 0, 0, 0, 0, 0, 0, 0, 0, 0, 0, 0\n0, 0, 0, 0, 0, 0, 0, 0, 0, 0, 0, 0, 0, 0, 0, 0, 0, 0\n0, 0, 0, 0, 0, 0, 0, 0, 0, 0, 0, 0, 0, 0, 0, 0, 0, 0\n0, 0, 0, 0, 0, 0, 0, 0, 0, 0, 0, 0, 0, 0, 0, 0, 0, 0\n0, 0, 0, 0, 0, 0, 0, 0, 0, 0, 0, 0, 0, 0, 0, 0, 0, 0\n0, 0, 0, 0, 0, 0, 0, 0, 0, 0, 0, 0, 0, 0, 0, 0, 0, 0\n0, 0, 0, 0, 0, 0, 0, 0, 0, 0, 0, 0, 0, 0, 0, 0, 0, 0\n0, 0, 0, 0, 0, 0, 0, 0, 0, 0, 0, 0, 0, 0, 0, 0, 0, 0\n0, 0, 0, 0, 0, 0, 0, 0, 0, 0, 0, 0, 0, 0, 0, 1, 0, 3\n1, 14, 18, 23, 29, 39, 28, 42, 42, 45, 62, 67, 78, 68, 87\n73, 93, 88, 95, 105, 103, 101, 78, 96, 121, 95, 95, 90, 106\n94, 120, 118, 105, 117, 104, 122, 126, 93, 87, 95, 78, 125\n107, 123, 120, 97, 101, 127, 123, 117, 111, 130, 105, 104\n86, 113, 123, 97, 114, 130, 139, 120, 99, 98, 136, 106, 119\n96, 125, 95, 116, 93, 108, 98, 98, 97, 80, 76, 91, 75, 69\n74, 67, 61, 54, 56, 61, 59, 45, 49, 43, 48, 50, 47, 30, 31\n34, 27, 23, 36, 34, 32, 20, 23, 27, 23, 29, 25, 18, 22, 17\n17, 19, 14, 22, 16, 12, 23, 14, 17, 18, 19, 15, 11, 8, 5\n4, 11, 4, 5, 3, 5, 6, 5, 0, 1, 2, 0, 1, 1, 0, 0, 0, 0\n0, 0, 0, 0, 0, 0, 0, 0, 0, 0, 0, 0, 0, 0, 0, 0, 0, 0\n0, 0, 0, 0, 0, 0, 0, 0, 0, 0, 0, 0, 0, 0, 0, 0, 0, 0\n0, 0, 0, 0, 0, 0, 0, 0, 0, 0, 0, 0, 0, 0, 0, 0, 0, 0\n0, 0, 0, 0, 0, 0, 0, 0, 0, 0, 0, 0, 0, 0, 0, 0, 0, 0\n0, 0, 0, 0, 0, 0, 0, 0, 0, 0, 0, 0, 0, 0, 0, 0, 0, 0\n0, 0, 0, 0, 0, 0, 0, 0, 0, 0, 0, 0, 0, 0, 0, 0, 0, 0\n0, 0, 0, 0, 0, 0, 0, 0, 0, 0, 0, 0, 0, 0, 0, 0, 0, 0\n0, 0, 0, 0, 0, 0, 0, 0, 0, 0, 0, 0, 0, 0, 0, 0, 0, 0\n0, 0, 0, 0, 0, 0, 0, 0, 0, 0, 0, 0, 0, 0, 0, 0, 0, 0\n0, 0, 0, 0, 0, 0, 0, 0, 0, 0, 0, 0, 0, 0, 0, 0, 0, 0\n0, 0, 0, 0, 0, 0, 0, 0, 0, 0, 0, 0, 0, 0, 0, 0, 0, 0\n0, 0, 0, 0, 0, 0, 0, 0, 0, 0, 0, 0, 0, 0, 0, 0, 0, 0\n0, 0, 0, 0, 0, 0, 0, 0, 0, 0, 0, 0, 0, 0, 0, 0, 0, 0\n0, 0, 0, 0, 0, 0, 0, 0, 0, 0, 0, 0, 0, 0, 0, 0, 0, 0\n0, 0, 0, 0]"] ;
1 -> 3 ;
4 [label="construction date (yyyymmdd) <= 7813.5\ngini = 0.9936\nsamples = 15478\nvalue = [1, 1, 1, 2, 1, 1, 1, 1, 1, 1, 1, 1, 1, 1, 7, 11, 9, 14\n19, 17, 8, 11, 14, 8, 9, 9, 9, 18, 56, 67, 79, 69, 74, 74\n78, 83, 64, 66, 71, 53, 63, 49, 63, 50, 46, 43, 44, 39, 53\n40, 46, 38, 43, 45, 41, 46, 29, 50, 42, 39, 25, 36, 42, 48\n53, 42, 49, 35, 42, 48, 34, 45, 45, 44, 43, 37, 37, 41, 42\n45, 45, 37, 35, 40, 37, 33, 36, 36, 34, 38, 43, 35, 31, 40\n38, 37, 39, 41, 43, 67, 45, 49, 45, 38, 46, 57, 56, 55, 80\n45, 60, 62, 55, 54, 66, 63, 45, 57, 79, 64, 90, 75, 72, 78\n71, 92, 80, 91, 86, 89, 78, 95, 86, 95, 104, 106, 119, 111\n120, 127, 131, 131, 125, 125, 127, 122, 156, 136, 143, 150\n146, 155, 157, 152, 162, 153, 174, 182, 165, 173, 155, 181\n184, 165, 148, 150, 159, 125, 133, 124, 160, 116, 147, 136\n126, 141, 132, 125, 128, 141, 110, 128, 105, 124, 97, 105\n115, 96, 92, 103, 87, 100, 76, 78, 94, 84, 65, 83, 85, 72\n83, 72, 67, 67, 68, 63, 62, 54, 47, 36, 46, 46, 49, 39, 41\n43, 46, 33, 39, 21, 15, 28, 24, 15, 20, 23, 17, 11, 8, 8\n9, 4, 7, 2, 0, 0, 0, 0, 0, 0, 0, 0, 0, 0, 0, 0, 0, 0\n0, 0, 0, 0, 0, 0, 0, 0, 0, 0, 0, 0, 0, 0, 0, 0, 0, 0\n0, 0, 0, 0, 0, 0, 0, 0, 0, 0, 0, 0, 0, 0, 0, 0, 0, 0\n0, 0, 0, 0, 0, 0, 0, 0, 0, 0, 0, 0, 0, 0, 0, 0, 0, 0\n0, 0, 0, 0, 0, 0, 0, 0, 0, 0, 0, 0, 0, 0, 0, 0, 0, 0\n0, 0, 0, 0, 0, 0, 0, 0, 0, 0, 0, 0, 0, 0, 0, 0, 0, 0\n0, 0, 0, 0, 0, 0, 0, 0, 0, 0, 0, 0, 0, 0, 0, 0, 0, 0\n0, 0, 0, 0, 0, 0, 0, 0, 0, 0, 0, 0, 0, 0, 0, 0, 0, 0\n0, 0, 0, 0, 0, 0, 0, 0, 0, 0, 0, 0, 0, 0, 0, 0, 0, 0\n0, 0, 0, 0, 0, 0, 0, 0, 0, 0, 0, 0, 0, 0, 0, 0, 0, 0\n0, 0, 0, 0, 0, 0, 0, 0, 0, 0, 0, 0, 0, 0, 0, 0, 0, 0\n0, 0, 0, 0, 0, 0, 0, 0, 0, 0, 0, 0, 0, 0, 0, 0, 0, 0\n0, 0, 0, 0, 0, 0, 0, 0, 0, 0, 0, 0, 0, 0, 0, 0, 0, 0\n0, 0, 0, 0, 0, 0, 0, 0, 0, 0, 0, 0, 0, 0, 0, 0, 0, 0\n0, 0, 0, 0, 0, 0, 0, 0, 0, 0, 0, 0, 0, 0, 0, 0, 0, 0\n0, 0, 0, 0, 0, 0, 0, 0, 0, 0, 0, 0, 0, 0, 0, 0, 0, 0\n0, 0, 0, 0, 0, 0, 0, 0, 0, 0, 0, 0, 0, 0, 0, 0, 0, 0\n0, 0, 0, 0, 0, 0, 0, 0, 0, 0, 0, 0, 0, 0, 0, 0, 0, 0\n0, 0, 0, 0, 0, 0, 0, 0]"] ;
0 -> 4 [labeldistance=2.5, labelangle=-45, headlabel="False"] ;
5 [label="gini = 0.9901\nsamples = 11242\nvalue = [0, 0, 0, 0, 0, 0, 0, 0, 0, 0, 0, 0, 0, 0, 0, 0, 0, 0\n0, 0, 0, 0, 0, 0, 0, 0, 0, 0, 0, 0, 0, 0, 0, 0, 0, 0\n0, 0, 0, 0, 0, 0, 0, 0, 0, 0, 0, 0, 0, 0, 0, 0, 0, 0\n0, 0, 0, 0, 0, 0, 0, 0, 0, 0, 0, 0, 0, 0, 0, 0, 0, 0\n0, 0, 0, 0, 0, 0, 0, 0, 0, 0, 0, 0, 2, 2, 1, 10, 6, 8\n10, 4, 8, 12, 7, 5, 12, 14, 11, 20, 17, 19, 26, 20, 19\n31, 28, 25, 42, 25, 31, 42, 35, 38, 45, 44, 24, 39, 57, 48\n58, 55, 50, 63, 57, 73, 68, 72, 72, 68, 62, 81, 78, 84, 94\n93, 110, 104, 109, 117, 121, 122, 121, 121, 120, 116, 150\n128, 141, 147, 145, 154, 153, 152, 161, 153, 174, 182, 165\n173, 155, 181, 184, 165, 148, 150, 159, 125, 133, 124, 160\n116, 147, 136, 126, 141, 132, 125, 128, 141, 110, 128, 105\n124, 97, 105, 115, 96, 92, 103, 87, 100, 76, 78, 94, 84, 65\n83, 85, 72, 83, 72, 67, 67, 68, 63, 62, 54, 47, 36, 46, 46\n49, 39, 41, 43, 46, 33, 39, 21, 15, 28, 24, 15, 20, 23, 17\n11, 8, 8, 9, 4, 7, 2, 0, 0, 0, 0, 0, 0, 0, 0, 0, 0, 0\n0, 0, 0, 0, 0, 0, 0, 0, 0, 0, 0, 0, 0, 0, 0, 0, 0, 0\n0, 0, 0, 0, 0, 0, 0, 0, 0, 0, 0, 0, 0, 0, 0, 0, 0, 0\n0, 0, 0, 0, 0, 0, 0, 0, 0, 0, 0, 0, 0, 0, 0, 0, 0, 0\n0, 0, 0, 0, 0, 0, 0, 0, 0, 0, 0, 0, 0, 0, 0, 0, 0, 0\n0, 0, 0, 0, 0, 0, 0, 0, 0, 0, 0, 0, 0, 0, 0, 0, 0, 0\n0, 0, 0, 0, 0, 0, 0, 0, 0, 0, 0, 0, 0, 0, 0, 0, 0, 0\n0, 0, 0, 0, 0, 0, 0, 0, 0, 0, 0, 0, 0, 0, 0, 0, 0, 0\n0, 0, 0, 0, 0, 0, 0, 0, 0, 0, 0, 0, 0, 0, 0, 0, 0, 0\n0, 0, 0, 0, 0, 0, 0, 0, 0, 0, 0, 0, 0, 0, 0, 0, 0, 0\n0, 0, 0, 0, 0, 0, 0, 0, 0, 0, 0, 0, 0, 0, 0, 0, 0, 0\n0, 0, 0, 0, 0, 0, 0, 0, 0, 0, 0, 0, 0, 0, 0, 0, 0, 0\n0, 0, 0, 0, 0, 0, 0, 0, 0, 0, 0, 0, 0, 0, 0, 0, 0, 0\n0, 0, 0, 0, 0, 0, 0, 0, 0, 0, 0, 0, 0, 0, 0, 0, 0, 0\n0, 0, 0, 0, 0, 0, 0, 0, 0, 0, 0, 0, 0, 0, 0, 0, 0, 0\n0, 0, 0, 0, 0, 0, 0, 0, 0, 0, 0, 0, 0, 0, 0, 0, 0, 0\n0, 0, 0, 0, 0, 0, 0, 0, 0, 0, 0, 0, 0, 0, 0, 0, 0, 0\n0, 0, 0, 0, 0, 0, 0, 0, 0, 0, 0, 0, 0, 0, 0, 0, 0, 0\n0, 0, 0, 0, 0, 0, 0, 0, 0, 0, 0]"] ;
4 -> 5 ;
6 [label="gini = 0.9901\nsamples = 4236\nvalue = [1, 1, 1, 2, 1, 1, 1, 1, 1, 1, 1, 1, 1, 1, 7, 11, 9, 14\n19, 17, 8, 11, 14, 8, 9, 9, 9, 18, 56, 67, 79, 69, 74, 74\n78, 83, 64, 66, 71, 53, 63, 49, 63, 50, 46, 43, 44, 39, 53\n40, 46, 38, 43, 45, 41, 46, 29, 50, 42, 39, 25, 36, 42, 48\n53, 42, 49, 35, 42, 48, 34, 45, 45, 44, 43, 37, 37, 41, 42\n45, 45, 37, 35, 40, 35, 31, 35, 26, 28, 30, 33, 31, 23, 28\n31, 32, 27, 27, 32, 47, 28, 30, 19, 18, 27, 26, 28, 30, 38\n20, 29, 20, 20, 16, 21, 19, 21, 18, 22, 16, 32, 20, 22, 15\n14, 19, 12, 19, 14, 21, 16, 14, 8, 11, 10, 13, 9, 7, 11\n10, 10, 9, 4, 4, 7, 6, 6, 8, 2, 3, 1, 1, 4, 0, 1, 0, 0\n0, 0, 0, 0, 0, 0, 0, 0, 0, 0, 0, 0, 0, 0, 0, 0, 0, 0\n0, 0, 0, 0, 0, 0, 0, 0, 0, 0, 0, 0, 0, 0, 0, 0, 0, 0\n0, 0, 0, 0, 0, 0, 0, 0, 0, 0, 0, 0, 0, 0, 0, 0, 0, 0\n0, 0, 0, 0, 0, 0, 0, 0, 0, 0, 0, 0, 0, 0, 0, 0, 0, 0\n0, 0, 0, 0, 0, 0, 0, 0, 0, 0, 0, 0, 0, 0, 0, 0, 0, 0\n0, 0, 0, 0, 0, 0, 0, 0, 0, 0, 0, 0, 0, 0, 0, 0, 0, 0\n0, 0, 0, 0, 0, 0, 0, 0, 0, 0, 0, 0, 0, 0, 0, 0, 0, 0\n0, 0, 0, 0, 0, 0, 0, 0, 0, 0, 0, 0, 0, 0, 0, 0, 0, 0\n0, 0, 0, 0, 0, 0, 0, 0, 0, 0, 0, 0, 0, 0, 0, 0, 0, 0\n0, 0, 0, 0, 0, 0, 0, 0, 0, 0, 0, 0, 0, 0, 0, 0, 0, 0\n0, 0, 0, 0, 0, 0, 0, 0, 0, 0, 0, 0, 0, 0, 0, 0, 0, 0\n0, 0, 0, 0, 0, 0, 0, 0, 0, 0, 0, 0, 0, 0, 0, 0, 0, 0\n0, 0, 0, 0, 0, 0, 0, 0, 0, 0, 0, 0, 0, 0, 0, 0, 0, 0\n0, 0, 0, 0, 0, 0, 0, 0, 0, 0, 0, 0, 0, 0, 0, 0, 0, 0\n0, 0, 0, 0, 0, 0, 0, 0, 0, 0, 0, 0, 0, 0, 0, 0, 0, 0\n0, 0, 0, 0, 0, 0, 0, 0, 0, 0, 0, 0, 0, 0, 0, 0, 0, 0\n0, 0, 0, 0, 0, 0, 0, 0, 0, 0, 0, 0, 0, 0, 0, 0, 0, 0\n0, 0, 0, 0, 0, 0, 0, 0, 0, 0, 0, 0, 0, 0, 0, 0, 0, 0\n0, 0, 0, 0, 0, 0, 0, 0, 0, 0, 0, 0, 0, 0, 0, 0, 0, 0\n0, 0, 0, 0, 0, 0, 0, 0, 0, 0, 0, 0, 0, 0, 0, 0, 0, 0\n0, 0, 0, 0, 0, 0, 0, 0, 0, 0, 0, 0, 0, 0, 0, 0, 0, 0\n0, 0, 0, 0, 0, 0, 0, 0, 0, 0, 0, 0, 0, 0, 0, 0, 0, 0\n0, 0, 0, 0, 0, 0, 0, 0, 0]"] ;
4 -> 6 ;
}